-1.930008597068444409e-02 -6.659124898455981434e-01 -3.833367165637143748e-01 1.840129432846534518e-01 -2.249353924303302499e+00
-1.294368913899039408e-01 -7.041437084394164270e-02 7.125627577531555568e-02 2.493344453921339798e-01 6.121301776062755273e-01
5.253731461614863721e-03 8.272026266769939851e-02 1.982174928851565196e-02 -7.665657104380914355e-02 1.019552920137055896e+00
2.042450483754149060e-02 -3.752639049021045947e-01 -8.401193795713898793e-02 1.478964251903653049e-01 3.852622358042731010e-01
6.817717321135016717e-02 -6.429166951646195782e-01 -4.183493665636350278e-01 6.001850453384558470e-01 -1.163959028505548332e+00
3.113822727214939773e-02 3.197772854803937470e-01 1.661852083133817659e-01 3.488879148886623316e-01 -1.165280470102265792e-01
5.248873367883444274e-02 3.264632233804060646e-01 1.407232738243863468e-01 4.017543910817488739e-01 3.518181269165630898e+00
-2.699118962674817643e-02 7.284250517043436846e-01 3.254274013778315489e-01 1.614217249214385252e-01 3.590016582698753123e+00
-5.817530159871295986e-02 5.276527998364300975e-01 1.432691000366230483e-01 1.566440004510696871e-01 1.284519759578135689e+00
8.610719958384112360e-02 9.114634067095762904e-02 -1.256786774022498054e-01 3.716253798323433388e-01 1.148701150665621729e+00
8.733171346211973662e-02 4.134783833783235996e-01 1.288266460775958633e-01 4.344917084522592621e-01 1.728373223216799648e+00
-6.052674340524592106e-02 5.777624987926948119e-01 3.412509694732130949e-01 -3.912300073040582138e-01 2.219841862013588241e+00
-3.772399606905992020e-02 8.035020038104359608e-02 6.690460632673331243e-02 -1.348145541366211619e-01 -1.249167779273391732e+00
-1.251336573040894018e-01 -9.895846066527212714e-02 1.039166535343359621e-01 1.007185940553939202e-01 -2.167263324508280409e+00
1.193302391790303646e-01 -5.950311486258087479e-01 -1.531824829535927968e-01 1.411140421736500061e-01 -1.794564056199172253e+00
-8.020780182165868077e-02 2.462702183271015255e-01 2.045736214792563401e-01 1.685370352317820675e-01 -5.252746652333458721e-01
1.482702411512964655e-02 6.555786488158064917e-02 5.547115688038483511e-02 -1.922551426686214537e-01 -1.229771957809452920e-01
-6.309396518124243958e-02 -4.597951815300907463e-01 -9.536215578952188243e-02 -1.549285515513836309e-01 -1.830969001538966578e+00
-1.005615633061285492e-02 -2.802562561748815351e-01 -2.502748488896845980e-01 2.585643605015034915e-03 -2.467516609957855156e+00
1.160416900406171792e-01 -8.154138674152540123e-01 -3.099299615158681021e-01 9.441985827578959489e-02 -2.734049155095049866e+00
